{"sizes": [10, 20, 2], "weights": [[[-43.6614855186098, 14.27955115836031, -13.145402969462571, 2.049261298142305, -47.715669227430986, -80.52978230887443, -7.165658898729794, -29.17850364208927, 12.1681488089998, -3.436420454068847], [-8.079061114395016, -22.36668126225483, 5.989453412708032, 4.8703387773065625, 6.224630774006911, 1.7175603138941484, 27.847382584165675, -3.370518142452824, 12.471681027729682, 3.9570518772338215], [-46.88691610175709, 15.229330954122261, -14.143919541444276, 2.15537786415116, -51.23384612613996, -86.49763319044558, -7.749323202370699, -31.332126729784225, 13.20724670325736, -3.6055230367659847], [4.069605323517954, 10.258892824391395, 0.6792931951776962, -0.01070200694411727, -2.715904356322323, -0.33757513724531985, -6.775900526447298, 1.5029400189841464, -8.269162934394036, -1.6757317827591465], [1.2519461488968242, 24.3666939511664, -0.7475771116613588, 11.552961423445018, -3.383200753530204, 7.632361546141816, 25.823683024297896, 0.19761769040228364, -16.511921699221674, -12.155155874445324], [-0.4493344647821025, -9.552427967800552, 0.9221552158125896, -4.2717635096403574, 2.2827783786524556, -3.080410151011434, -9.35516010565468, -0.23808171684774787, 7.2373532438448915, 4.299657676777728], [34.834552198097505, -44.994879100991106, 17.791278655760763, -2.0832625469918002, 49.698375115122374, 19.43659790003482, 44.16889144218291, -6.722330364523013, 39.07416958348516, 12.03996240086363], [-0.8778180389090741, -0.93634880669738, -3.4812615764122103, -1.7729558171037112, -0.15454785886013567, -1.3308534856532888, -5.067287082950014, -0.2146167891718402, 2.9484153652734046, -0.5874444901443354], [4.528620450406058, -1.4882978093846266, -0.6599362596330138, -1.8722404212147914, 4.748956458067157, -2.1141789159825515, 1.7391080971532416, 4.120358293893192, 3.3972484571664094, -2.4508115985884187], [36.69541864495662, -47.45034598806431, 18.686604559510094, -2.3277262657435838, 52.3493873168475, 20.674699584277345, 46.41863833941904, -6.993585777746608, 41.227649079409495, 12.734250289244413], [-30.48424116279975, -45.55328741147056, 36.56755515962999, -43.14307177058165, 25.65580125889481, -16.240297968764832, 33.80773896054509, -21.969779379619798, 63.56543320397295, 23.455553242389453], [-18.163557499237164, 51.14783954987585, -3.8307510576714674, -6.570547144490186, -7.834314863066535, -5.090432986788219, -43.875584091692275, -9.389743312789648, -45.74715904952599, 20.695619945798708], [-0.17117352463825425, 4.003077151230344, -4.745193140703006, -2.2170956295222677, -2.562813522713841, -4.544663245888795, -12.509002922329511, -0.32303117757032246, -0.09411751689591324, -2.141842146997249], [-3.1609725360258785, -7.121010703509985, -2.3039692021028957, -1.148275786998279, 1.6295863353769033, -2.493319063350968, 0.17413548388147107, -1.1909942788476913, 6.904134965048511, 0.28446530640500456], [9.948721274176593, 25.014049456481512, -4.059174326287373, -4.248457960541879, -6.4878496185435575, -0.9535387577840178, -26.16927290135966, 4.180007925405367, -15.550709703156498, -4.070111644638479], [-1.0946998509512025, 0.2253078405563307, -1.3977928129047856, -2.1471214315561027, 2.6218879020610353, -1.0854701088914729, -2.3266446457547723, 1.0169690220241532, -2.15982748048722, -0.9959233538682053], [-3.4537545270699965, -10.526081437744853, 5.409811376100807, 3.731140304798488, 3.3116384695928835, 1.8381377321736256, 17.895579998804312, -1.577203285074373, 4.221858104639152, 2.3918373147159366], [-3.273100686155281, 13.430375302338073, 0.18428348084557467, 9.708187421526516, -3.747773558530792, -7.262259229002008, 12.839614075732285, -3.692998157262678, -9.155587278548554, -11.282273991707209], [17.1291938032692, -47.993298027269994, 3.57529792318756, 6.0259841108846635, 7.583266852036316, 4.905331429237461, 40.91058149509163, 8.875646604597586, 42.900734061397756, -19.301241542464712], [-31.760794003782028, -47.665047463275215, 38.07568635645252, -45.07358410866686, 26.780465169086145, -17.357939461984646, 35.02960886051934, -22.883963002445423, 66.48261919467485, 24.347105114414973]], [[10.095554278052532, -3.3158016974360973, -10.084787519118205, 3.411766572809603, -4.318421648798999, 0.5571946246035436, 11.672632032752778, 2.630223357730881, 2.2673994805336894, -11.679112121241399, 15.244290497518689, -14.126503167752539, -1.4229714714157815, -1.121764479133336, -2.9328252450225327, -0.9923199774338582, 3.747660937309005, 3.8225990326648662, -14.152056154056375, -15.225834108474498], [-10.095554278246093, 3.315801697519421, 10.084787519289378, -3.411766572931997, 4.318421648874173, -0.5571946246077575, -11.672632033134946, -2.630223357839936, -2.267399485227976, 11.679112121594118, -15.244290498572301, 14.1265031693085, 1.4229714715034685, 1.1217644791848818, 2.9328252451480363, 0.9923199781626678, -3.7476609374227614, -3.8225990327348627, 14.152056155601679, 15.225834109517805]]], "biases": [[[0.7406620049978206], [-32.778928451516556], [-0.8933123606214831], [-14.007201900723995], [-37.84045021405446], [-3.8023974555314632], [-64.51976009924128], [4.701185921864599], [1.494821581259708], [-69.7422951354424], [1.1401960342819353], [88.61780062032747], [5.4242973087234505], [6.232397484190987], [-28.83201592927885], [2.704506699072171], [-19.96341669265994], [-27.63415685430831], [-85.06438862011235], [-1.3138040622316172]], [[13.067992265134253], [-13.067992266622934]]], "cost": "QuadraticCost"}