{"sizes": [10, 32, 2], "weights": [[[-0.8446077529761342, -0.4016487201616674, -0.0987033555907355, 0.3560632524423311, -0.00039518359333964414, -0.6530566526439212, 0.4156772530997034, 0.2759408747086726, 0.33291646615436393, 0.2390871551748016], [-0.45027527800671, -0.5593300132108379, 0.3157441101554979, -0.7099504229199329, 0.35000360225551996, -0.26596334986500786, 0.5588636312011329, 0.47740089143163816, 0.08503380177139547, -0.4493094962255415], [-0.1029123281480493, -0.05072972180950294, -0.4156605600376253, 0.01383999463275529, -0.13247881123623984, -0.41666559554209825, -0.27690232825620464, 0.41795222179070396, 0.23569819995400598, 0.03238981989064852], [-0.007202920250099242, -0.5343276045202686, -0.0868508362926205, 0.3737573067001788, 0.4540129813932063, -0.34915085204866486, 0.41490035904245776, 0.41038130570964854, -0.2485979880301447, 0.1992760418574961], [-0.38200545921632234, -0.2412480821051619, 0.289284103247242, 0.4486744684159049, 0.5455959437465463, 0.39898568004910373, 0.23493615647339294, 0.7487699878439653, -0.15638693053638733, 0.45256369272225244], [-0.05285312481431114, 0.10632342864063428, -0.22797982282263538, 0.308824878285013, 0.5545034583309694, -0.220943625632462, -0.37613480068815, 0.3870934639917163, -0.06551441197110663, 0.2531233357587547], [-0.35621116135453257, -0.12261468110774314, 0.04408470087587145, -0.3235151175203369, 0.11068069119041213, 0.6715958380359679, 0.12464223883395782, 0.537188194785511, 0.1344571875450059, 0.23919338552359043], [-0.6062237232038784, -0.1502749993472631, -0.05138198866659454, -0.5322135564927076, 0.2142324095758392, 0.3430853473214328, 0.23350342295920304, 0.4072616105034109, 0.07949384511089627, 0.5362553538220356], [-0.47176871119124336, -0.03764489032269723, -0.6023637947563322, 0.43392928892675386, 0.4594387662737446, -0.10177926540855242, -0.25082750537977133, 0.23242264198199872, -0.26922284982426126, 0.03127482428280154], [-0.1846207525636379, -0.24902597210702448, 0.1179258859106048, 0.3731136368619451, 0.2872276856506434, -0.4966513187518627, 0.34564600913462673, 0.8311925976189707, -0.2967306756194216, 0.34074623614896765], [-0.44302771509128497, -0.0874668599856733, -0.040045071667767586, -0.5578698733708896, 0.5675493403265576, 0.529011339296482, -0.34113337223768814, 0.22398968095960556, -0.4353978439778859, 0.42416855898028377], [-0.5174933667502466, -0.34438959888435866, -0.13126864830725016, -0.2541878601258701, 0.586609900222064, -0.026112281699957086, -0.39987736284437475, 0.07365840874402976, -0.3793190326280156, -0.0387746565126154], [0.28033341064140244, 0.1112546450684766, -0.379308508665448, 0.13672032466721062, 0.2988819270433117, -0.15122753617374132, -0.42157321310247736, 0.2765196223422975, -0.346152690652582, 0.07061446888648693], [-0.4914118428423285, -0.24228488825345348, -0.09914107689411328, -0.04870588452701953, -0.3083114004289206, -0.17359174170942168, 0.36743053997964154, -0.15160674100836768, 0.41960353001722916, -0.1667058566558508], [-0.04088507090459419, -0.02758460979110929, -0.3588678512605789, -0.20810739444772572, 0.5179924471029077, -0.173854356605739, -0.5770236403628348, 0.29263192520295767, -0.11079507766236373, -0.16989274042381458], [-0.22556844193130512, -0.3107345124605614, -0.13441025405167892, -0.1390292057548831, 0.4061669343250225, 0.052591016648557906, -0.395163626144555, 0.15342650357773305, -0.020041690891984345, -0.08268200930399687], [-0.12712937340064584, 0.16859399893001473, -0.7149526337216419, -0.7812253583233333, 0.4542456448971768, -0.07394503936172314, 0.0740073558487613, 0.3093034784929768, 0.2473731522752609, 0.5307589990256748], [-0.22748093642416123, 0.22231646585396736, -0.10549117246979334, 0.052734057373027304, 0.2894684627200114, -0.39738395785922465, 0.3620771211077963, 0.4049038273491526, -0.05303162440291677, -0.31528282269063507], [-0.3608627104619657, -0.22014342229789727, 0.31095543429232664, 0.12024650230472377, 0.046308408273515754, -0.3964635838285723, 0.39600578211837273, 1.1661850671220109, 0.30303884827871125, 0.18160474469746932], [-0.21025717326337115, 0.09408411211570199, -0.16396763842868028, -0.34896733024586385, -0.274718637727567, 0.6137728057571135, 0.11455511405311444, 0.48445671437928167, -0.5722638310402267, -0.023499281959156168], [0.2442639292901071, 0.6716855286551862, -0.16029139539038187, -0.11236201675902432, 0.7267281549497264, 0.31490755288881855, 0.5934039476580222, 0.36084733619579995, 0.19883923955990354, -0.19471491771725244], [-0.33136621925196263, 0.438322880997235, 0.2248282885083182, -0.7208602878431211, 0.009997061312148347, -0.34527691128931964, -0.47424048804807156, -0.09470298282269886, -0.17588675531547848, 0.18121839787804261], [-0.04732706486586008, 0.38406519289607594, 0.08695501450675812, -0.08509794821816258, 0.35404740138562885, -0.25301069677326177, 0.05166289264852235, 0.25810172505818735, 0.15264375793911059, 0.13693555099058152], [0.0027744450440886203, -0.12033032755324691, -0.26662858098684195, -0.4053221278988865, 0.3800706660601747, 0.2454509091624508, -0.012152963839014213, 0.5357407724821882, 0.19355405218570754, 0.035802291005605585], [0.07155726870512366, 0.6748797818180239, 0.36046204174893093, -0.45185685077962773, 0.1123349229172687, 0.10576979190762519, -0.1817989973210215, 0.311295569741201, -0.3696847664705457, 0.08073298500418685], [-0.6079011860494112, 0.16741168988685592, 0.021623535000852966, 0.26519693994450455, 0.6076275154697073, 0.012442648858946873, 0.1890936672454339, 0.1885753226872645, -0.32769897748315663, 0.23678893445023114], [-0.3193937707600125, 0.401957229091504, -0.05200101324945643, -0.3010279046709724, 0.09749985872988431, 0.016301068924728865, 0.5929832977636362, 0.6549131136145562, -0.02117996475125505, 0.2810344161774231], [-0.11048510558623065, 0.2931381292752231, -0.345506763329486, 0.05900408222296641, 0.048609123974426995, 0.030173216163875947, 0.12652197177969704, 0.8869006471466326, 0.03593476081333626, -0.1778575726042109], [-0.183437788400234, -0.03273575964165557, -0.554754313221653, 0.12392034167115133, 0.28071337841697214, 0.04230816945937076, 0.3369438406199962, 0.04977804379905193, -0.10829137138942466, 0.09406790933246983], [-0.8966208986794543, -0.7416352979428799, -0.7110186947555436, -0.42989432461203075, 0.2897203195403559, 0.06895911116047185, 0.20249847234106783, 0.03526623076670651, 0.15932449380649685, -0.01042060729624232], [-0.2023991537576889, 0.3768653979307943, -0.15338677625168662, -0.11729501616982846, 0.20995703460469972, -0.34517202975161787, 0.07030718199598161, -0.1987270042479578, -0.08470541726551657, 0.6983985671824593], [0.07529614551462809, 0.13534604771430164, -0.26035558938612635, -0.20382552308818694, 0.6268467591430347, 0.28931515376553335, -0.6000575264615216, 0.4395677123361474, 0.35972061090352647, -0.27806930606786934]], [[0.08204359438685516, -0.23331900078333337, -0.28860132497096075, 0.09020362097800605, 0.18613723060347748, -0.07186053401228919, 0.031413659586023435, -0.0367880748850624, -0.09900139016250563, 0.2131017796205736, -0.034709357757676154, -0.00988104793653934, 0.2957821038502656, 0.5437642579685948, -0.24026573231206705, -0.000279600573810497, 0.08217129179397216, -0.14229645867624824, 0.18429629789681515, -0.16952625617644496, 0.08131392900926528, -0.04420117557144769, -0.09497349668914565, -0.09317149147666434, 0.3202236809002908, 0.08878481933849405, 0.004627356712856867, -0.3505566952763742, -0.042519581041409384, 0.1980445712176355, -0.11856931978822591, 0.12199113325695098], [-0.045709964124333584, 0.14803721149963942, -0.1495663234499775, -0.10116519195107458, -0.18819455987028055, 0.181064353317688, 0.08580093346416648, -0.14278152803777358, -0.11221840598641872, -0.1147049224485018, -0.022769284537430424, 0.1399642001035984, 0.5644702572870711, 0.7457779756843264, -0.07830975081200407, 0.11504947735716357, -0.0010412949110799748, 0.021222483724154168, -0.11522463986058473, 0.08886985669039373, -0.11856478482907377, -0.19894215525025746, 0.14384589460287883, 0.12588049189239212, 0.004980716151031229, -0.05380673343316819, 0.08497977470111302, 0.18682994959983218, -0.21392627071391165, -0.2297597335278437, 0.16281715563161994, -0.08620916908205883]]], "biases": [[[1.0131497199676358], [-0.05154986793739213], [-0.41908770112536664], [-0.2621590256178322], [0.3104185040219255], [0.607313214459116], [-0.25906820391936847], [0.9312213586707075], [1.9453304522272798], [-0.37156377956907405], [0.8945562391407665], [0.9495215299589554], [0.6709733997431534], [1.295693583081588], [0.24019990731976773], [-0.48676219315174574], [0.5817120446411688], [0.22875713550844162], [-1.5022528920266407], [-1.2545915872137523], [0.02167363891734727], [-1.8495316582473447], [-0.6965604716501348], [0.3371891376122007], [0.06490715165188257], [0.7387866857953952], [0.11056031725650393], [1.1020523560006734], [-0.5564814547743668], [1.0904826178002973], [0.003504939518633311], [-0.019219605246427986]], [[-0.40331157802775136], [-0.8219863778988759]]], "cost": "QuadraticCost"}